<?xml version="1.0"?>
<opencv_storage>
<cascade>
  <stageType>BOOST</stageType>
  <featureType>LBP</featureType>
  <height>24</height>
  <width>48</width>
  <stageParams>
    <boostType>GAB</boostType>
    <minHitRate>9.9500000476837158e-01</minHitRate>
    <maxFalseAlarm>3.0000001192092896e-01</maxFalseAlarm>
    <weightTrimRate>9.4999998807907104e-01</weightTrimRate>
    <maxDepth>1</maxDepth>
    <maxWeakCount>100</maxWeakCount></stageParams>
  <featureParams>
    <maxCatCount>256</maxCatCount>
    <featSize>1</featSize></featureParams>
  <stageNum>16</stageNum>
  <stages>
    <!-- stage 0 -->
    <_>
      <maxWeakCount>2</maxWeakCount>
      <stageThreshold>-1.2571053206920624e-01</stageThreshold>
      <weakClassifiers>
        <_>
          <internalNodes>
            0 -1 27 -174861825 -712982511 1359020499 -177995712
            -662666823 -662657023 -1290818871 -8085372</internalNodes>
          <leafValues>
            -9.3088555335998535e-01 8.9778208732604980e-01</leafValues></_>
        <_>
          <internalNodes>
            0 -1 58 -78128673 -150880253 1342292043 -182595455
            1610645834 -1157461880 -1040055782 -1426412837</internalNodes>
          <leafValues>
            -8.2512247562408447e-01 8.0517500638961792e-01</leafValues></_></weakClassifiers></_>
    <!-- stage 1 -->
    <_>
      <maxWeakCount>2</maxWeakCount>
      <stageThreshold>-1.1369967460632324e-01</stageThreshold>
      <weakClassifiers>
        <_>
          <internalNodes>
            0 -1 37 -67125249 -780876801 1090699735 -11108070 -736431621
            -1682386811 -1065119323 -1294988</internalNodes>
          <leafValues>
            -9.0209788084030151e-01 8.2819795608520508e-01</leafValues></_>
        <_>
          <internalNodes>
            0 -1 13 -207094785 -1056782350 -1803451911 -1029123664
            -1509717585 -838335861 -763244923 -136841807</internalNodes>
          <leafValues>
            -8.1754338741302490e-01 7.8839820623397827e-01</leafValues></_></weakClassifiers></_>
    <!-- stage 2 -->
    <_>
      <maxWeakCount>4</maxWeakCount>
      <stageThreshold>-1.4401574432849884e-01</stageThreshold>
      <weakClassifiers>
        <_>
          <internalNodes>
            0 -1 33 -786957321 -683343789 285280541 -41262841
            -1073557345 -108853118 -266841608 -1065305185</internalNodes>
          <leafValues>
            -9.0049749612808228e-01 7.8506374359130859e-01</leafValues></_>
        <_>
          <internalNodes>
            0 -1 3 -888945253 553837120 180227 -1585295360 -921976693
            -1610399741 1208206027 -540019723</internalNodes>
          <leafValues>
            -7.4108624458312988e-01 7.6574814319610596e-01</leafValues></_>
        <_>
          <internalNodes>
            0 -1 67 -241970913 39695159 -243248239 -1606319343
            -855068086 713558024 -494163493 -86010965</internalNodes>
          <leafValues>
            -7.8702831268310547e-01 7.0401942729949951e-01</leafValues></_>
        <_>
          <internalNodes>
            0 -1 49 677843255 -1966305189 604023071 -99413758
            -1073725414 -1442086900 -1152995133 -335566101</internalNodes>
          <leafValues>
            -7.0843291282653809e-01 7.7776193618774414e-01</leafValues></_></weakClassifiers></_>
    <!-- stage 3 -->
    <_>
      <maxWeakCount>3</maxWeakCount>
      <stageThreshold>4.2473325133323669e-01</stageThreshold>
      <weakClassifiers>
        <_>
          <internalNodes>
            0 -1 51 1929594839 -787277563 16851263 -1325268985
            -938245680 -561904637 -1869969224 -24594518</internalNodes>
          <leafValues>
            -8.4079599380493164e-01 7.6320582628250122e-01</leafValues></_>
        <_>
          <internalNodes>
            0 -1 0 -652756485 -1044086506 18137353 -785727358
            -1065123669 -1740472320 1795285163 -2373712</internalNodes>
          <leafValues>
            -8.8634455204010010e-01 6.3235056400299072e-01</leafValues></_>
        <_>
          <internalNodes>
            0 -1 36 -1942617839 -2004103163 -654196257 -1791147881
            -1898763583 -62503508 1782593705 -1881204725</internalNodes>
          <leafValues>
            -8.1804502010345459e-01 6.3317871093750000e-01</leafValues></_></weakClassifiers></_>
    <!-- stage 4 -->
    <_>
      <maxWeakCount>4</maxWeakCount>
      <stageThreshold>-2.3025895655155182e-01</stageThreshold>
      <weakClassifiers>
        <_>
          <internalNodes>
            0 -1 54 -1 -151191553 -4097 -285540354 -257 -33685505
            -1091109379 -352518148</internalNodes>
          <leafValues>
            -7.2558140754699707e-01 7.5887852907180786e-01</leafValues></_>
        <_>
          <internalNodes>
            0 -1 10 -514209293 42442810 557520 -1115086773 1629245443
            276955296 1764360759 -1070429</internalNodes>
          <leafValues>
            -7.6895159482955933e-01 6.6753756999969482e-01</leafValues></_>
        <_>
          <internalNodes>
            0 -1 78 -125569193 -1610153967 -2129649647 -1906016125
            -248952812 -402554713 1351061640 -354905970</internalNodes>
          <leafValues>
            -7.5894623994827271e-01 6.6302943229675293e-01</leafValues></_>
        <_>
          <internalNodes>
            0 -1 70 -670997945 -1861779373 1140867077 -1743744944
            805823488 198912 -1072052224 -890328646</internalNodes>
          <leafValues>
            -8.0786228179931641e-01 5.8673107624053955e-01</leafValues></_></weakClassifiers></_>
    <!-- stage 5 -->
    <_>
      <maxWeakCount>4</maxWeakCount>
      <stageThreshold>-3.3750250935554504e-01</stageThreshold>
      <weakClassifiers>
        <_>
          <internalNodes>
            0 -1 57 -788183565 -779091708 12289 1599078739 1451845458
            -922714048 35160138 -1428503041</internalNodes>
          <leafValues>
            -7.8630137443542480e-01 6.9339209794998169e-01</leafValues></_>
        <_>
          <internalNodes>
            0 -1 5 -239865345 -536722428 -653819756 -687669240
            1347064527 131210 42156289 -140291165</internalNodes>
          <leafValues>
            -7.5124412775039673e-01 6.5067118406295776e-01</leafValues></_>
        <_>
          <internalNodes>
            0 -1 80 -490605651 545399811 25233629 80908763 -2129503739
            -636661616 -1333656817 -1362395697</internalNodes>
          <leafValues>
            -7.4351263046264648e-01 5.9092676639556885e-01</leafValues></_>
        <_>
          <internalNodes>
            0 -1 41 -774515813 486768642 274 -780140497 296616088
            -1878720317 -1993632855 -21431564</internalNodes>
          <leafValues>
            -8.5724997520446777e-01 5.4164028167724609e-01</leafValues></_></weakClassifiers></_>
    <!-- stage 6 -->
    <_>
      <maxWeakCount>4</maxWeakCount>
      <stageThreshold>-1.6798155009746552e-01</stageThreshold>
      <weakClassifiers>
        <_>
          <internalNodes>
            0 -1 73 -318767233 679378943 -16777381 788463614 -536912041
            2145910783 -154 -185081857</internalNodes>
          <leafValues>
            -5.6559139490127563e-01 7.3719805479049683e-01</leafValues></_>
        <_>
          <internalNodes>
            0 -1 4 -985399809 -509603712 -2147483474 -671055872
            -494302741 -1028980723 -1878048703 -137924303</internalNodes>
          <leafValues>
            -7.8160685300827026e-01 5.9210288524627686e-01</leafValues></_>
        <_>
          <internalNodes>
            0 -1 30 704881495 1427145093 -1073626793 -578710521 3243
            -1207795297 5055675 1939821127</internalNodes>
          <leafValues>
            -7.5743174552917480e-01 5.5195909738540649e-01</leafValues></_>
        <_>
          <internalNodes>
            0 -1 63 -745286585 251908107 16818199 135070915 -805285752
            696289920 822117515 -1426075193</internalNodes>
          <leafValues>
            -7.3962330818176270e-01 6.3385897874832153e-01</leafValues></_></weakClassifiers></_>
    <!-- stage 7 -->
    <_>
      <maxWeakCount>5</maxWeakCount>
      <stageThreshold>-8.5616338253021240e-01</stageThreshold>
      <weakClassifiers>
        <_>
          <internalNodes>
            0 -1 46 251604799 788332543 -32853 -1342504961 2147450741
            -557057 -49193 -1075904513</internalNodes>
          <leafValues>
            -5.7175397872924805e-01 7.0782279968261719e-01</leafValues></_>
        <_>
          <internalNodes>
            0 -1 15 -4202689 -356843778 -4482 -269746272 1878933367
            2147352575 -35467 -262283</internalNodes>
          <leafValues>
            -6.1526274681091309e-01 6.3977843523025513e-01</leafValues></_>
        <_>
          <internalNodes>
            0 -1 20 -687618053 -971734745 -1055448271 -939094012
            -2122317655 -125828992 -2102755189 -71502660</internalNodes>
          <leafValues>
            -7.1871453523635864e-01 5.9253919124603271e-01</leafValues></_>
        <_>
          <internalNodes>
            0 -1 11 -783952649 -2045635694 67143902 -887615483
            1075335235 2020477600 537395207 -1151631221</internalNodes>
          <leafValues>
            -8.3052241802215576e-01 4.6098777651786804e-01</leafValues></_>
        <_>
          <internalNodes>
            0 -1 59 -752391851 -1853609470 16842753 -259783895
            -1073642965 428572704 -1068953391 -1162951860</internalNodes>
          <leafValues>
            -7.1074020862579346e-01 5.7668733596801758e-01</leafValues></_></weakClassifiers></_>
    <!-- stage 8 -->
    <_>
      <maxWeakCount>6</maxWeakCount>
      <stageThreshold>-5.0568073987960815e-01</stageThreshold>
      <weakClassifiers>
        <_>
          <internalNodes>
            0 -1 29 -1047341480 -1009729264 64 -1857961459 -2109693807
            713105938 -2147462977 225916191</internalNodes>
          <leafValues>
            -8.1045752763748169e-01 6.2646567821502686e-01</leafValues></_>
        <_>
          <internalNodes>
            0 -1 79 1511520527 -2039425325 2017526549 -1530750818
            -1054797743 -790035959 -871727094 -1361385730</internalNodes>
          <leafValues>
            -7.3020666837692261e-01 5.4770135879516602e-01</leafValues></_>
        <_>
          <internalNodes>
            0 -1 71 -746109681 18055305 33297 -787922935 -1988100096
            -2147377152 -1069350144 -1279331602</internalNodes>
          <leafValues>
            -6.8613243103027344e-01 5.8959001302719116e-01</leafValues></_>
        <_>
          <internalNodes>
            0 -1 32 604678099 1488224276 -1862254057 528552081 419562121
            -1740636127 809068783 -644923193</internalNodes>
          <leafValues>
            -7.4914407730102539e-01 5.2608865499496460e-01</leafValues></_>
        <_>
          <internalNodes>
            0 -1 12 -805186825 -251527021 268453910 -664240120 805915765
            1520468360 -2130482655 -893402557</internalNodes>
          <leafValues>
            -6.4201980829238892e-01 5.8400529623031616e-01</leafValues></_>
        <_>
          <internalNodes>
            0 -1 61 -778882209 -796372607 -1861732075 -57004026
            268486025 -436141949 -1904115290 -288697765</internalNodes>
          <leafValues>
            -7.0990461111068726e-01 5.5864930152893066e-01</leafValues></_></weakClassifiers></_>
    <!-- stage 9 -->
    <_>
      <maxWeakCount>6</maxWeakCount>
      <stageThreshold>-2.4086517095565796e-01</stageThreshold>
      <weakClassifiers>
        <_>
          <internalNodes>
            0 -1 52 784281461 788410335 -269484033 -1346469889 -32907 -1
            -49160 -1149272071</internalNodes>
          <leafValues>
            -5.6435644626617432e-01 6.6423356533050537e-01</leafValues></_>
        <_>
          <internalNodes>
            0 -1 81 -531836425 -2142858813 1090519485 -1430612643
            1635829059 -377192320 -1608986117 -533732694</internalNodes>
          <leafValues>
            -5.9728884696960449e-01 5.7036596536636353e-01</leafValues></_>
        <_>
          <internalNodes>
            0 -1 7 -683153493 21364738 544787 -2138849216 -758865889
            65539 -771135403 -385884636</internalNodes>
          <leafValues>
            -6.5280640125274658e-01 5.6201201677322388e-01</leafValues></_>
        <_>
          <internalNodes>
            0 -1 39 572812799 -1969434526 218911197 -1189347008
            -1878978413 -2083913599 -1987542136 -1950030463</internalNodes>
          <leafValues>
            -6.2506562471389771e-01 5.6149739027023315e-01</leafValues></_>
        <_>
          <internalNodes>
            0 -1 55 -627625903 -645787365 402669577 -574238527
            -528218047 -2147385344 704694272 -1361548328</internalNodes>
          <leafValues>
            -6.2361174821853638e-01 5.2858448028564453e-01</leafValues></_>
        <_>
          <internalNodes>
            0 -1 24 641980887 -1005546224 1351127173 620757059 806449163
            1216348312 419954715 -12909942</internalNodes>
          <leafValues>
            -7.2617715597152710e-01 4.4362398982048035e-01</leafValues></_></weakClassifiers></_>
    <!-- stage 10 -->
    <_>
      <maxWeakCount>7</maxWeakCount>
      <stageThreshold>-2.4638096988201141e-01</stageThreshold>
      <weakClassifiers>
        <_>
          <internalNodes>
            0 -1 66 -770182441 2057109558 196620 -620625630 -771720367
            -1165942784 -1299730176 -1328221512</internalNodes>
          <leafValues>
            -7.5415283441543579e-01 6.0633862018585205e-01</leafValues></_>
        <_>
          <internalNodes>
            0 -1 21 276828405 -451854272 1342177298 -653000672 557195
            -1463222069 -2004188992 -537679341</internalNodes>
          <leafValues>
            -7.1450346708297729e-01 4.4953170418739319e-01</leafValues></_>
        <_>
          <internalNodes>
            0 -1 38 541263189 164823040 536911697 -788529151 268437913
            -1743224695 168122512 -70533111</internalNodes>
          <leafValues>
            -5.9748762845993042e-01 5.1570367813110352e-01</leafValues></_>
        <_>
          <internalNodes>
            0 -1 69 -250381317 -1828093823 1342177282 -704249599
            -1853820159 553713864 -931003392 -228668515</internalNodes>
          <leafValues>
            -7.3338437080383301e-01 4.0451025962829590e-01</leafValues></_>
        <_>
          <internalNodes>
            0 -1 42 -918345865 -200634112 -939504941 -1878999017
            1208189569 -250413040 -2130170405 -1460127068</internalNodes>
          <leafValues>
            -6.9591706991195679e-01 3.9529263973236084e-01</leafValues></_>
        <_>
          <internalNodes>
            0 -1 50 -1047792555 -699362991 1224737183 -1744158576
            -930956015 -108707679 -2111797232 -368573935</internalNodes>
          <leafValues>
            -6.3734221458435059e-01 5.0161361694335938e-01</leafValues></_>
        <_>
          <internalNodes>
            0 -1 16 -2147302699 -1073709049 16 17039633 1084311825
            1771049344 1514309746 -108097277</internalNodes>
          <leafValues>
            -6.9673305749893188e-01 4.7128558158874512e-01</leafValues></_></weakClassifiers></_>
    <!-- stage 11 -->
    <_>
      <maxWeakCount>6</maxWeakCount>
      <stageThreshold>-4.6436315774917603e-01</stageThreshold>
      <weakClassifiers>
        <_>
          <internalNodes>
            0 -1 74 2139062103 788496375 -16777474 -1430339585 -114820
            -16842753 -99076 -1359806594</internalNodes>
          <leafValues>
            -5.2429670095443726e-01 6.3570785522460938e-01</leafValues></_>
        <_>
          <internalNodes>
            0 -1 6 1360908759 1358972928 533650 -1123258366 1476600555
            700547227 2014184999 -137400177</internalNodes>
          <leafValues>
            -5.9021514654159546e-01 5.1776671409606934e-01</leafValues></_>
        <_>
          <internalNodes>
            0 -1 45 -1974438027 -1722748927 -1878994797 -1862156209
            -1870591035 -1073708920 -788004855 -1416727685</internalNodes>
          <leafValues>
            -7.3595321178436279e-01 4.1847592592239380e-01</leafValues></_>
        <_>
          <internalNodes>
            0 -1 2 1090574411 -2079850430 3 9961486 1082163339
            -1073512446 2130059 -72423031</internalNodes>
          <leafValues>
            -7.4735605716705322e-01 4.3519091606140137e-01</leafValues></_>
        <_>
          <internalNodes>
            0 -1 40 -830434339 -1408067432 1074843793 -1344927483
            -1877814809 -1031274354 -1983872888 -1400584144</internalNodes>
          <leafValues>
            -6.3771849870681763e-01 5.3066045045852661e-01</leafValues></_>
        <_>
          <internalNodes>
            0 -1 34 268456217 286261249 285212697 -1760526315 1342800011
            -1961820016 142780601 -189478749</internalNodes>
          <leafValues>
            -6.7378157377243042e-01 4.5721065998077393e-01</leafValues></_></weakClassifiers></_>
    <!-- stage 12 -->
    <_>
      <maxWeakCount>6</maxWeakCount>
      <stageThreshold>-2.0817123353481293e-01</stageThreshold>
      <weakClassifiers>
        <_>
          <internalNodes>
            0 -1 9 -849741095 33036 285212732 1091633152 939606055
            67141760 1342849571 1930158667</internalNodes>
          <leafValues>
            -7.5177305936813354e-01 5.8456486463546753e-01</leafValues></_>
        <_>
          <internalNodes>
            0 -1 25 -19234817 -318767110 -65569 -2030112835 -33687553
            -58851457 -1157779457 -1465924373</internalNodes>
          <leafValues>
            -3.8820412755012512e-01 7.4284797906875610e-01</leafValues></_>
        <_>
          <internalNodes>
            0 -1 65 -107154953 1387266050 -2143055595 2016018435 8396852
            -381681536 -2004608701 -55899295</internalNodes>
          <leafValues>
            -5.6315219402313232e-01 5.6039470434188843e-01</leafValues></_>
        <_>
          <internalNodes>
            0 -1 60 937374007 278364172 -2147401715 -921337852
            -524143951 -1475739520 -1062698821 -1115541493</internalNodes>
          <leafValues>
            -5.2265620231628418e-01 5.4325461387634277e-01</leafValues></_>
        <_>
          <internalNodes>
            0 -1 17 -1060781605 327155728 -2147348462 134234752
            1074208899 -1610088447 -1981660608 -376767951</internalNodes>
          <leafValues>
            -6.8139970302581787e-01 4.4195494055747986e-01</leafValues></_>
        <_>
          <internalNodes>
            0 -1 44 -1961307301 1930432901 1073872899 -984086653
            453017731 -1734270208 201385 -1674015352</internalNodes>
          <leafValues>
            -6.1379832029342651e-01 4.7203212976455688e-01</leafValues></_></weakClassifiers></_>
    <!-- stage 13 -->
    <_>
      <maxWeakCount>7</maxWeakCount>
      <stageThreshold>-3.6122968792915344e-01</stageThreshold>
      <weakClassifiers>
        <_>
          <internalNodes>
            0 -1 14 1895915908 -268365821 268472450 -788512768 402661871
            2176 -671081879 1939479362</internalNodes>
          <leafValues>
            -6.7025089263916016e-01 5.6265354156494141e-01</leafValues></_>
        <_>
          <internalNodes>
            0 -1 72 -619744649 306200967 -2130706431 34373954
            -2146922274 -1744822143 1074102490 -1429277698</internalNodes>
          <leafValues>
            -7.5919353961944580e-01 3.6003494262695312e-01</leafValues></_>
        <_>
          <internalNodes>
            0 -1 26 -921054497 -2147352556 1052724 -2046295544
            -512196359 -2004549495 -1467741276 -339156764</internalNodes>
          <leafValues>
            -7.3151236772537231e-01 3.5347869992256165e-01</leafValues></_>
        <_>
          <internalNodes>
            0 -1 53 -1136256171 -758120367 1224786373 -141016953
            -2105294684 -1467939832 -1592835967 -806747448</internalNodes>
          <leafValues>
            -5.2484381198883057e-01 4.9702847003936768e-01</leafValues></_>
        <_>
          <internalNodes>
            0 -1 18 -251037001 -128483261 -1879031472 -595326652
            136319011 1375733897 -1456864441 -1180212537</internalNodes>
          <leafValues>
            -5.7919389009475708e-01 4.4414252042770386e-01</leafValues></_>
        <_>
          <internalNodes>
            0 -1 68 -149823083 1342308373 147483 1528829961 -1878916601
            176488706 -2002050519 -1153131528</internalNodes>
          <leafValues>
            -6.2881076335906982e-01 4.2035359144210815e-01</leafValues></_>
        <_>
          <internalNodes>
            0 -1 1 268513431 1150615553 52 404094994 -2147483615
            -2003697664 134217856 -1146945530</internalNodes>
          <leafValues>
            -7.9812639951705933e-01 3.0501961708068848e-01</leafValues></_></weakClassifiers></_>
    <!-- stage 14 -->
    <_>
      <maxWeakCount>8</maxWeakCount>
      <stageThreshold>-1.9195517897605896e-01</stageThreshold>
      <weakClassifiers>
        <_>
          <internalNodes>
            0 -1 77 -151554177 -1359020035 -16814081 -285835265
            -33747372 -131076 -268554412 -319881476</internalNodes>
          <leafValues>
            -5.0282484292984009e-01 5.9162300825119019e-01</leafValues></_>
        <_>
          <internalNodes>
            0 -1 47 -1970399435 -1811885883 -2011086843 365044365
            -2130576136 -1610612736 -1845493215 -1081950071</internalNodes>
          <leafValues>
            -6.3014334440231323e-01 4.0521064400672913e-01</leafValues></_>
        <_>
          <internalNodes>
            0 -1 8 -800984627 268435524 524296 -784203776 -1610294597
            687870082 1252017266 -107750509</internalNodes>
          <leafValues>
            -5.4137480258941650e-01 4.7678014636039734e-01</leafValues></_>
        <_>
          <internalNodes>
            0 -1 19 -67190787 1827602431 -1343230099 -1912684564
            -377751556 2142928895 -1520439301 -314329186</internalNodes>
          <leafValues>
            -4.3187972903251648e-01 6.5579336881637573e-01</leafValues></_>
        <_>
          <internalNodes>
            0 -1 43 -1958983467 -992739065 822186193 -1655308286
            -385559921 -1451196287 -2096459763 -1917040447</internalNodes>
          <leafValues>
            -5.3895944356918335e-01 5.0078779458999634e-01</leafValues></_>
        <_>
          <internalNodes>
            0 -1 35 -2122180267 -2126508031 -1073676207 956383424
            -1065295621 -1560203256 -1316994989 -1965838224</internalNodes>
          <leafValues>
            -5.5480641126632690e-01 4.7510632872581482e-01</leafValues></_>
        <_>
          <internalNodes>
            0 -1 48 1853703846 1694445471 -1 790871823 -1073758275
            -1208483841 -1073758209 -1124073473</internalNodes>
          <leafValues>
            -4.9663957953453064e-01 5.4987645149230957e-01</leafValues></_>
        <_>
          <internalNodes>
            0 -1 64 1698906623 -1694433129 1090552080 1234354307
            -1559624028 1073774592 687898713 -400667432</internalNodes>
          <leafValues>
            -6.1853951215744019e-01 4.2125132679939270e-01</leafValues></_></weakClassifiers></_>
    <!-- stage 15 -->
    <_>
      <maxWeakCount>8</maxWeakCount>
      <stageThreshold>-2.8682410717010498e-01</stageThreshold>
      <weakClassifiers>
        <_>
          <internalNodes>
            0 -1 75 -33554825 754778111 -17371394 -1426264322 -134250899
            2113404663 -412 -1392607498</internalNodes>
          <leafValues>
            -5.0141644477844238e-01 5.9023541212081909e-01</leafValues></_>
        <_>
          <internalNodes>
            0 -1 22 -649869089 -527368173 1610612793 -395165685 1125515
            -1855291246 -1072981621 -670523346</internalNodes>
          <leafValues>
            -4.8328182101249695e-01 5.0087636709213257e-01</leafValues></_>
        <_>
          <internalNodes>
            0 -1 23 1090769431 1359024129 -2147483639 17109251 805372365
            402654224 285431819 -275815598</internalNodes>
          <leafValues>
            -4.9068483710289001e-01 5.2654129266738892e-01</leafValues></_>
        <_>
          <internalNodes>
            0 -1 76 -747945707 -805072893 75579417 1883275521 67717392
            -2147278710 536905984 -352534105</internalNodes>
          <leafValues>
            -6.6926133632659912e-01 3.8850918412208557e-01</leafValues></_>
        <_>
          <internalNodes>
            0 -1 62 96801045 1024954498 -2063563766 353474953 1107836930
            -939523959 -1337655112 -1152171502</internalNodes>
          <leafValues>
            -5.8896625041961670e-01 4.3417280912399292e-01</leafValues></_>
        <_>
          <internalNodes>
            0 -1 56 -1124073674 -318832641 -2 -139460625 -131212
            -16859137 -8868 -304091649</internalNodes>
          <leafValues>
            -4.8522603511810303e-01 5.8411043882369995e-01</leafValues></_>
        <_>
          <internalNodes>
            0 -1 28 -65547 -286326802 2147467249 1718288270 2004877309
            -1511129249 -178290690 -1383610765</internalNodes>
          <leafValues>
            -4.8415371775627136e-01 5.6748491525650024e-01</leafValues></_>
        <_>
          <internalNodes>
            0 -1 31 57148123 -1996484598 -2092892136 -1592589304
            1610642237 -393704824 139020833 -410025536</internalNodes>
          <leafValues>
            -7.1823793649673462e-01 3.9918491244316101e-01</leafValues></_></weakClassifiers></_></stages>
  <features>
    <_>
      <rect>
        0 0 5 6</rect></_>
    <_>
      <rect>
        0 0 13 2</rect></_>
    <_>
      <rect>
        0 1 3 5</rect></_>
    <_>
      <rect>
        0 2 2 7</rect></_>
    <_>
      <rect>
        0 10 2 4</rect></_>
    <_>
      <rect>
        0 13 3 3</rect></_>
    <_>
      <rect>
        0 13 4 3</rect></_>
    <_>
      <rect>
        0 15 1 3</rect></_>
    <_>
      <rect>
        0 15 2 2</rect></_>
    <_>
      <rect>
        0 15 4 3</rect></_>
    <_>
      <rect>
        0 18 3 2</rect></_>
    <_>
      <rect>
        0 18 5 2</rect></_>
    <_>
      <rect>
        0 20 1 1</rect></_>
    <_>
      <rect>
        1 7 3 3</rect></_>
    <_>
      <rect>
        1 10 11 4</rect></_>
    <_>
      <rect>
        1 18 1 2</rect></_>
    <_>
      <rect>
        1 19 1 1</rect></_>
    <_>
      <rect>
        2 16 1 2</rect></_>
    <_>
      <rect>
        2 20 1 1</rect></_>
    <_>
      <rect>
        3 0 5 1</rect></_>
    <_>
      <rect>
        3 2 2 2</rect></_>
    <_>
      <rect>
        3 6 7 1</rect></_>
    <_>
      <rect>
        4 0 2 2</rect></_>
    <_>
      <rect>
        4 12 3 4</rect></_>
    <_>
      <rect>
        4 15 5 3</rect></_>
    <_>
      <rect>
        5 0 2 1</rect></_>
    <_>
      <rect>
        5 9 1 1</rect></_>
    <_>
      <rect>
        6 0 8 4</rect></_>
    <_>
      <rect>
        6 1 4 1</rect></_>
    <_>
      <rect>
        7 5 12 6</rect></_>
    <_>
      <rect>
        7 10 5 4</rect></_>
    <_>
      <rect>
        8 17 2 1</rect></_>
    <_>
      <rect>
        9 15 3 3</rect></_>
    <_>
      <rect>
        12 2 12 4</rect></_>
    <_>
      <rect>
        12 6 8 1</rect></_>
    <_>
      <rect>
        14 9 7 3</rect></_>
    <_>
      <rect>
        14 12 6 4</rect></_>
    <_>
      <rect>
        15 5 2 2</rect></_>
    <_>
      <rect>
        15 16 2 1</rect></_>
    <_>
      <rect>
        15 20 2 1</rect></_>
    <_>
      <rect>
        15 21 2 1</rect></_>
    <_>
      <rect>
        18 5 1 1</rect></_>
    <_>
      <rect>
        18 9 1 1</rect></_>
    <_>
      <rect>
        19 21 2 1</rect></_>
    <_>
      <rect>
        21 2 2 1</rect></_>
    <_>
      <rect>
        21 11 3 4</rect></_>
    <_>
      <rect>
        21 17 4 1</rect></_>
    <_>
      <rect>
        22 16 2 2</rect></_>
    <_>
      <rect>
        24 11 7 4</rect></_>
    <_>
      <rect>
        24 16 1 1</rect></_>
    <_>
      <rect>
        24 21 3 1</rect></_>
    <_>
      <rect>
        25 0 7 4</rect></_>
    <_>
      <rect>
        25 15 3 2</rect></_>
    <_>
      <rect>
        25 21 1 1</rect></_>
    <_>
      <rect>
        26 4 1 1</rect></_>
    <_>
      <rect>
        26 21 1 1</rect></_>
    <_>
      <rect>
        28 0 5 1</rect></_>
    <_>
      <rect>
        30 3 6 6</rect></_>
    <_>
      <rect>
        33 1 5 7</rect></_>
    <_>
      <rect>
        33 8 1 1</rect></_>
    <_>
      <rect>
        33 17 1 1</rect></_>
    <_>
      <rect>
        34 10 2 1</rect></_>
    <_>
      <rect>
        34 15 2 2</rect></_>
    <_>
      <rect>
        36 12 4 4</rect></_>
    <_>
      <rect>
        37 11 1 1</rect></_>
    <_>
      <rect>
        39 0 2 1</rect></_>
    <_>
      <rect>
        39 0 3 3</rect></_>
    <_>
      <rect>
        39 15 3 1</rect></_>
    <_>
      <rect>
        41 0 2 2</rect></_>
    <_>
      <rect>
        41 7 2 2</rect></_>
    <_>
      <rect>
        41 8 2 2</rect></_>
    <_>
      <rect>
        42 1 2 5</rect></_>
    <_>
      <rect>
        42 12 2 4</rect></_>
    <_>
      <rect>
        42 18 2 2</rect></_>
    <_>
      <rect>
        43 13 1 2</rect></_>
    <_>
      <rect>
        44 17 1 1</rect></_>
    <_>
      <rect>
        45 10 1 2</rect></_>
    <_>
      <rect>
        45 13 1 2</rect></_>
    <_>
      <rect>
        45 14 1 2</rect></_>
    <_>
      <rect>
        45 18 1 2</rect></_>
    <_>
      <rect>
        45 20 1 1</rect></_>
    <_>
      <rect>
        45 21 1 1</rect></_></features></cascade>
</opencv_storage>
